LR1,1.3422971963882446,0.8546091914176941,0.17694631218910217,-1.4801602363586426,-0.934036910533905,0.6957351565361023,-1.062872290611267,0.46804898977279663,1.1371062994003296,-1.8616740703582764,0.3406956195831299,-0.23069551587104797,-0.4360060691833496,1.0796393156051636,0.07797002792358398,0.06972488760948181,-0.19558122754096985,0.5958997011184692,1.8202100992202759,-1.1904597282409668,1.0567926168441772,1.7246617078781128,-0.22128362953662872,0.34999266266822815,0.9961698651313782,-1.2824842929840088,0.5624668598175049,-0.39850351214408875,-0.12761858105659485,1.022735595703125,-0.7781193852424622,0.9598435163497925,-1.230204463005066,-0.008249839767813683,-1.9336433410644531,0.38798391819000244,0.5224860906600952,0.43205127120018005,0.824836015701294,0.3624046742916107,0.931172251701355,-2.276939630508423,-0.6623532772064209,-0.6194626688957214,0.9477953314781189,-1.6164345741271973,-1.3381147384643555,-1.116323471069336,-0.5986314415931702,0.054991934448480606,0.31932270526885986,0.8047229051589966,-0.2773340344429016,-0.2744975686073303,-0.02581208199262619,-1.0709196329116821,1.2200876474380493,-1.312857985496521,1.1148061752319336,-0.7623822689056396,-0.40557387471199036,1.2130872011184692,1.5598541498184204,1.488148808479309,-0.47675567865371704,-0.011682940647006035,-0.6425225138664246,-1.527527093887329,-0.7068755030632019,0.4088329076766968,-0.43941396474838257,1.1881135702133179,-0.5000081658363342,0.38894781470298767,-1.0193716287612915,0.42530930042266846,1.204032301902771,0.33766981959342957,-0.4509122967720032,-0.5353604555130005,-1.0296142101287842,0.02918577939271927,-0.9528151750564575,-0.5631442666053772,1.164275050163269,0.08306187391281128,2.0932960510253906,-0.43097439408302307,1.5321451425552368,1.4350403547286987,-1.456107258796692,-1.687451958656311,-0.6048391461372375,-1.0229512453079224,1.4263453483581543,-0.9078510999679565,1.1990320682525635,-0.8866370916366577,0.8058857321739197,0.6699178218841553,0.572929322719574,-0.9585261940956116,0.7247045636177063,0.8291903734207153,1.8378647565841675,-0.9466954469680786,-0.4013022184371948,-0.8434728384017944,-0.7996673583984375,-1.9177532196044922,-0.6927659511566162,1.368275761604309,0.3595274090766907,0.2512805461883545,-0.6622141003608704,-1.0009394884109497,0.16482828557491302,-0.5470300912857056,1.4594368934631348,0.7426920533180237,-1.300573468208313,-1.416689395904541,-0.8529989123344421,0.908109724521637,1.8069385290145874,1.6274718046188354,0.04667360335588455,-0.47563043236732483
LR2,1.2590515613555908,1.5627843141555786,-0.05679107457399368,-1.402205228805542,-0.6032348871231079,-0.135067418217659,-0.5710278749465942,0.5984535813331604,1.33512544631958,-0.261036217212677,-1.157544732093811,-1.2397096157073975,0.4961481988430023,1.1416457891464233,0.44052445888519287,-0.6049104332923889,-0.5639218091964722,0.6540693640708923,0.8296918869018555,-0.9477084279060364,0.5028484463691711,1.6830974817276,-0.3324027359485626,0.7141937017440796,0.5555123686790466,-1.6099298000335693,0.9235144853591919,-0.6251537203788757,0.8405528664588928,2.0233776569366455,-1.2651818990707397,0.9057745337486267,-1.8049695491790771,-0.5334107875823975,-0.7109603881835938,0.38411474227905273,0.45216965675354004,1.1237846612930298,-0.3625541031360626,1.20223069190979,0.6009491682052612,-1.4313468933105469,-1.6955815553665161,-0.7930958271026611,1.0591121912002563,-1.6140742301940918,-1.0361840724945068,-1.096190094947815,-1.2319788932800293,0.22903881967067719,-0.3391379117965698,-0.8228897452354431,1.3966619968414307,1.0288076400756836,-0.9319245219230652,-0.9226424694061279,-0.3759377598762512,-1.407410740852356,0.9179167151451111,-0.5494365692138672,-0.5874204635620117,0.5687814354896545,1.943299651145935,1.093361735343933,0.4073832929134369,1.2735061645507812,-0.8911569714546204,-0.5899946689605713,-1.6716513633728027,-0.5503526329994202,-0.41078707575798035,0.9094427824020386,-1.2944294214248657,0.40284743905067444,-1.036678671836853,1.2889949083328247,1.115882158279419,0.4752495586872101,-1.342717170715332,-1.5382226705551147,-0.8282413482666016,0.24197785556316376,0.0010097185149788857,0.4070264399051666,0.5647888779640198,1.0078321695327759,1.0677695274353027,-0.4821278750896454,0.7426068186759949,0.9382799863815308,-2.081904172897339,-0.565604031085968,-1.126475214958191,0.2925809323787689,0.4001792371273041,-0.7058282494544983,1.2776521444320679,-0.6928342580795288,0.534950852394104,-0.22376416623592377,0.5037370920181274,-1.1034568548202515,-0.4426145553588867,-0.6244909167289734,1.3577020168304443,-0.8187349438667297,0.4161187708377838,-0.7610065937042236,-1.5599244832992554,-1.5467052459716797,-0.01834797114133835,1.1851134300231934,1.0522847175598145,0.5088804364204407,0.05199339985847473,-0.7548461556434631,0.883638858795166,0.6768999099731445,1.5565191507339478,1.0268622636795044,-0.8756148815155029,-1.425714135169983,-0.8298975229263306,1.8090100288391113,1.320495367050171,1.2718735933303833,-0.031035540625452995,1.1000851392745972
LR3,1.396488070487976,-0.2521955072879791,0.8477003574371338,-1.3539621829986572,-1.0087306499481201,-0.41877299547195435,0.4011975824832916,1.1793909072875977,0.07001599669456482,-1.659246563911438,-0.16096514463424683,0.4921019375324249,-1.1688640117645264,-0.4343929588794708,0.32935258746147156,0.14460067451000214,-0.3429240584373474,0.6103633642196655,0.7849706411361694,-0.2273404896259308,-1.2035362720489502,1.0625649690628052,0.31377896666526794,-0.31609365344047546,0.8802509903907776,-1.5761268138885498,0.8225418925285339,0.18512964248657227,-0.06721463054418564,1.1376484632492065,-0.025417786091566086,1.8566479682922363,-1.5857105255126953,-0.18728983402252197,-1.2944391965866089,1.13937246799469,-0.04532155394554138,-0.6808920502662659,2.964730978012085,-0.05302796512842178,1.7847683429718018,-0.33949825167655945,-0.8019658327102661,-0.8978812098503113,1.9604429006576538,-0.6266703605651855,-0.15965887904167175,-0.22966212034225464,-1.407180666923523,0.39830148220062256,0.11237677186727524,3.0567750930786133,-1.1666678190231323,-1.9115301370620728,-0.06369899213314056,-0.5750100612640381,0.5606037378311157,-0.14542271196842194,1.2317204475402832,0.3650970458984375,-0.2929539978504181,0.3460381329059601,0.2990601360797882,1.3287500143051147,0.9493147134780884,-0.031603649258613586,0.06754092872142792,-1.690469741821289,-0.08401196449995041,0.746817409992218,-0.0844748467206955,0.7139425277709961,-0.5660112500190735,-0.3501703441143036,-0.46230366826057434,0.1597021520137787,0.5485098361968994,2.4125654697418213,-1.224069356918335,0.7626435160636902,-0.7315160036087036,-1.2140896320343018,0.26001641154289246,0.4902637004852295,0.7851335406303406,0.6880536079406738,0.619827151298523,0.29774779081344604,0.9183821082115173,0.8325117826461792,-0.4973921477794647,-1.4315413236618042,-0.40325602889060974,-1.1283211708068848,1.2150002717971802,-0.9071912169456482,0.4695601761341095,-0.7834080457687378,-0.04813253507018089,1.8127853870391846,0.4318512976169586,-2.5135984420776367,-1.0210374593734741,1.3867155313491821,0.02481437660753727,0.7175754308700562,-0.8224220871925354,-1.3889163732528687,-0.4517368674278259,-0.9430745244026184,-1.3939487934112549,0.4359043836593628,0.0488983653485775,-0.7259169816970825,-2.04464054107666,-0.18685652315616608,0.4070776402950287,-0.7249566316604614,0.8404158353805542,-0.01349621918052435,-0.4931577444076538,-0.9518290758132935,-0.38951870799064636,1.024004578590393,1.2382011413574219,1.4114282131195068,-1.4272453784942627,-0.5616627931594849
LR4,1.3154850006103516,1.0417585372924805,0.5660153031349182,-1.3858190774917603,-1.3058443069458008,-0.15725761651992798,-0.25049614906311035,1.021667242050171,1.3570805788040161,-1.4434834718704224,-0.8328345417976379,-0.03675933554768562,-0.751973569393158,0.77187579870224,0.34499672055244446,-0.7078692317008972,-0.32588234543800354,1.3096445798873901,1.5911612510681152,-0.8964846730232239,0.4944680333137512,1.3788169622421265,0.23688282072544098,0.0489029623568058,1.0531188249588013,-1.3659261465072632,0.48738908767700195,-0.692712128162384,-0.09226196259260178,0.8735203146934509,-1.1529781818389893,0.9631825089454651,-1.3804746866226196,-1.0528793334960938,-1.7879468202590942,-0.36006051301956177,0.708173394203186,0.013449298217892647,1.8485896587371826,-0.11944132298231125,1.1423434019088745,-1.2522635459899902,-1.2482762336730957,-0.39199939370155334,1.2124319076538086,-0.9049899578094482,-1.090179681777954,-1.2585614919662476,-1.0230690240859985,0.2883903980255127,0.8364441394805908,1.764465093612671,-0.24008095264434814,-0.7594476342201233,-0.588640570640564,-1.0165903568267822,0.12737257778644562,-1.3915189504623413,1.351571798324585,-0.8374822735786438,0.8187916874885559,1.1372056007385254,1.437354326248169,0.8498004674911499,-0.023507151752710342,0.10352912545204163,-0.03741661086678505,-1.1184004545211792,-0.8135843276977539,-0.3249684274196625,-0.8588396906852722,1.6619781255722046,-0.7020315527915955,0.609342634677887,-0.8944830298423767,0.5446779727935791,1.6081109046936035,0.8812687993049622,0.3565881550312042,-0.599067211151123,-1.2551273107528687,0.5747444033622742,0.21083976328372955,0.15123251080513,1.2686100006103516,0.41486772894859314,2.033083915710449,-0.08146125078201294,1.3967881202697754,1.8472270965576172,-1.2887822389602661,-1.387625813484192,-0.40703704953193665,-0.9375771284103394,1.2809371948242188,-0.7567646503448486,1.2323423624038696,-1.2667770385742188,0.6671643257141113,0.5083629488945007,1.3201066255569458,-1.1100994348526,-0.49664419889450073,0.3448938727378845,1.181262731552124,-1.2564557790756226,-0.665276288986206,-0.9819120168685913,-1.1568025350570679,-1.4857945442199707,-1.1809881925582886,1.4795827865600586,0.4613916575908661,-0.27327290177345276,-0.9408420324325562,-0.6725063920021057,0.030835798010230064,0.1686539649963379,1.2259212732315063,0.25840094685554504,-1.4865813255310059,-1.4272562265396118,-0.7886016964912415,1.183521032333374,0.8413950204849243,1.4387061595916748,-0.5084728002548218,-0.09492119401693344
LR5,0.8498930931091309,0.5449163317680359,-0.33402949571609497,-0.5355905890464783,0.5835631489753723,1.0145446062088013,-1.2282230854034424,-1.1422045230865479,0.7767850756645203,-0.43758338689804077,0.3058626353740692,0.10500399768352509,-0.04421669617295265,-0.21120725572109222,-1.595719337463379,1.127501368522644,0.2949889302253723,1.2946416139602661,2.4884893894195557,-0.9553808569908142,-0.08338084816932678,-0.5405044555664062,-0.28353315591812134,-0.3366878926753998,1.276091456413269,0.3756287395954132,1.3105158805847168,-0.2721951901912689,-0.4728788137435913,0.2552343010902405,0.6580989956855774,0.8501929640769958,-0.4271428883075714,-0.5840076804161072,-2.424473762512207,-0.725677490234375,-1.0194846391677856,0.19656039774417877,0.2374037653207779,-0.3006909489631653,-0.1017075702548027,-1.1371700763702393,-0.18706545233726501,-0.8443676233291626,1.5863759517669678,-0.8551822900772095,-0.6071778535842896,-0.030862974002957344,0.5312773585319519,-0.4812833070755005,-0.2028781920671463,0.4336133599281311,-0.37807226181030273,-1.3485445976257324,1.513075351715088,-0.9114518761634827,2.4325170516967773,-0.3776772618293762,0.19026429951190948,-0.6900154948234558,1.276714563369751,0.514039933681488,0.9930013418197632,0.2529660165309906,-1.6465754508972168,0.21694955229759216,-0.3471486270427704,-1.168702483177185,0.05272247642278671,-0.38225057721138,-0.9547735452651978,1.5537147521972656,0.6088334918022156,1.578857421875,0.22979456186294556,0.42378079891204834,0.6599582433700562,-1.6937404870986938,1.6446675062179565,-0.5220596194267273,-0.49901634454727173,0.5611844062805176,-0.7182708978652954,-1.776007890701294,1.066968560218811,-1.0843005180358887,3.1456775665283203,-0.7713356614112854,0.6628568172454834,0.6273753046989441,-0.3330899477005005,-2.8339498043060303,0.5130321979522705,0.2618841528892517,-0.11766105890274048,0.34644728899002075,0.9397611021995544,-1.0577932596206665,-0.9031850099563599,-1.2382283210754395,-1.8699605464935303,-0.6341797709465027,2.178499221801758,0.1931949257850647,1.4769312143325806,-2.420480966567993,0.34695708751678467,0.6436900496482849,0.3244853615760803,-0.028231341391801834,1.0019893646240234,1.349905252456665,0.3525177538394928,0.6336190700531006,-0.03200804442167282,-0.1573723405599594,-0.21608960628509521,-0.607352077960968,-0.6517722010612488,0.17548789083957672,-1.0828509330749512,-0.5721480846405029,0.04213976487517357,0.3644407391548157,1.2434790134429932,-0.01739271730184555,-1.059285044670105,-0.22957739233970642
