LR1,-0.03993701934814453,-0.007189150899648666,0.00952295120805502,-0.034245412796735764,-0.011816621758043766,0.02942613884806633,-0.032973721623420715,-0.06253493577241898,-0.04445409029722214,-0.09819497168064117,0.016074934974312782,0.0922495648264885,-0.03329160436987877,-0.09183972328901291,-0.019539659842848778,-0.02469317987561226,-0.07426571846008301,0.06098209694027901,-0.08799188584089279,0.026591327041387558,-0.005629504099488258,0.09851204603910446,0.007833674550056458,-0.0538669116795063,0.05675138160586357,0.13853459060192108,0.006547633558511734,0.0019584479741752148,0.006904025562107563,0.015951698645949364,-0.027184471487998962,0.05209026113152504,0.04727260768413544,0.09512333571910858,-0.10734914243221283,0.01770864427089691,0.09482400119304657,-0.07771763205528259,-0.11361493170261383,-0.00622989097610116,0.06051331385970116,-0.07216391712427139,-0.016364693641662598,-0.014667918905615807,0.09017296880483627,-0.04574252665042877,-0.1304609626531601,-0.06253383308649063,0.051361434161663055,-0.014847509562969208,0.010346184484660625,0.0739835724234581,-0.05732085183262825,-0.06796862185001373,-0.09550435841083527,0.06948322057723999,0.08580958098173141,0.00034504220820963383,-0.0717228427529335,-0.04866151139140129,-0.06029095500707626,0.07917328178882599,-0.07573284208774567,0.12604577839374542,-0.007798835169523954,-0.01879064179956913,-0.021873291581869125,-0.07774467021226883,-0.04311756417155266,0.028797751292586327,0.027440521866083145,0.033704113215208054,0.07070799916982651,0.01788131520152092,0.005609298124909401,0.04408019036054611,0.03639965131878853,0.005352056119590998,0.07693953067064285,0.029107723385095596,-0.05603666603565216,0.06251373887062073,-0.039954785257577896,0.018193362280726433,0.005204749293625355,0.03805198520421982,-0.03907560184597969,0.0022106049582362175,-0.002827399643138051,-0.029925217851996422,-0.057048697024583817,0.03984696418046951,-0.011067546904087067,-0.0441465824842453,0.11346042901277542,-0.016611985862255096,0.03889155760407448,-0.03606848046183586,0.022219909355044365,0.024552641436457634,-0.07590214163064957,-0.0014584074961021543,0.03516583517193794,0.0033802844118326902,0.06458722800016403,0.055385977029800415,-0.06934274733066559,-0.028616968542337418,0.014023891650140285,-0.020572395995259285,-0.03925495222210884,-0.00396275520324707,-0.07421402633190155,-0.06891800463199615,-0.06528371572494507,0.09113700687885284,-0.022952493280172348,-0.07906598597764969,0.030286667868494987,0.012746702879667282,-0.11964219808578491,-0.07073364406824112,-0.03438956290483475,0.10368921607732773,0.061709992587566376,0.08667727559804916,-0.045189689844846725,-0.14979097247123718
LR2,-0.03437233343720436,-0.03727323189377785,-0.05178467929363251,-0.09635581076145172,-0.04796478524804115,-0.011147977784276009,0.06565418839454651,0.045887093991041183,-0.02132275328040123,0.003023100085556507,-0.08679436147212982,-0.02949593774974346,-0.04308915510773659,-0.055458568036556244,0.019090093672275543,0.04332427307963371,-0.039158474653959274,0.04967236518859863,-0.09539362043142319,-0.04019560292363167,0.004349938128143549,0.044043295085430145,0.012214475311338902,-0.030727427452802658,-0.0022652025800198317,0.061429183930158615,0.019069785252213478,0.06579951196908951,0.08526340126991272,0.12351600080728531,-0.08105119317770004,0.019736165180802345,0.07168155908584595,-0.014835070818662643,-0.03585342690348625,0.0404977910220623,0.10414991527795792,-0.0581396259367466,-0.04765131697058678,0.05113161727786064,0.07720112800598145,-0.004866501782089472,-0.06279513984918594,0.053480517119169235,0.10142607241868973,-0.04655975103378296,-0.05850578472018242,-0.03205021843314171,0.031094152480363846,-0.062453001737594604,-0.014041113667190075,0.00634716497734189,0.02231663092970848,0.049325138330459595,-0.035136543214321136,0.003470728639513254,-0.05152680724859238,0.03942165523767471,0.0022537026088684797,-0.09173433482646942,0.01780029386281967,0.01447550393640995,0.04646667465567589,0.01760874316096306,0.020431216806173325,0.030515968799591064,-0.024897243827581406,-0.05833901837468147,-0.023098910227417946,0.013119643554091454,-0.022870177403092384,-0.06976408511400223,-0.07194485515356064,0.022201934829354286,0.07224887609481812,0.07414396852254868,0.023223139345645905,0.002489397069439292,0.034758999943733215,-0.04228505492210388,-0.05111847072839737,-0.012603175826370716,0.025728411972522736,0.08047141134738922,-0.04515001177787781,0.008549409918487072,0.00892054196447134,-0.07649987936019897,-0.07563510537147522,-0.03738164156675339,-0.05496570095419884,0.061493851244449615,-0.06103277951478958,0.00712927058339119,0.08603643625974655,0.025712233036756516,0.02141343057155609,-0.06270343065261841,-0.10326908528804779,-0.005698746535927057,-0.0025909554678946733,-0.007486242335289717,0.02882775478065014,-0.05589449033141136,0.030629755929112434,-0.03891253471374512,0.1341572254896164,-0.01809089072048664,-0.0626676082611084,-0.04625152796506882,0.0008743087528273463,-0.08538005501031876,0.039677418768405914,0.009772189892828465,0.03710809722542763,-0.07819155603647232,0.014816480688750744,-0.037255045026540756,0.06736326217651367,0.009555746801197529,-0.06609264761209488,0.01562740094959736,-0.06052222475409508,0.11617133766412735,0.07583526521921158,0.1184433326125145,-0.03575432673096657,-0.03521290794014931
LR3,-0.002069661859422922,-0.02907182089984417,-0.10061021149158478,-0.01825791969895363,-0.0687984898686409,-0.024198809638619423,-0.004308836534619331,-0.023581014946103096,-0.0379922054708004,-0.03843207657337189,-0.006412281189113855,0.09969060122966766,-0.08783262968063354,-0.1216321811079979,0.00865573063492775,-0.06079316511750221,-0.10327555984258652,0.0592317171394825,-0.04197394475340843,-0.004736276809126139,-0.062213219702243805,0.1207084059715271,-0.016302205622196198,-0.09023718535900116,0.07566393166780472,-0.033144187182188034,0.0911266878247261,0.013793797232210636,0.024336952716112137,0.05037074536085129,0.04121936857700348,0.013539171777665615,0.004536484368145466,0.020127177238464355,-0.10562784224748611,0.025246428325772285,0.08866679668426514,-0.13221178948879242,-0.02824462577700615,-0.0636267364025116,0.040433455258607864,-0.05930624529719353,-0.0027332045137882233,-0.07741186767816544,0.10600469261407852,-0.01096239686012268,-0.08153343945741653,0.008435674011707306,-0.021521680057048798,-0.02961895987391472,-0.04039183259010315,0.09420034289360046,-0.06085241213440895,0.007365838158875704,-0.10890837013721466,0.07493170350790024,-0.02835794724524021,-0.004899794235825539,-0.021776173263788223,-0.1624910682439804,-0.027387648820877075,-0.020596910268068314,-0.05210361257195473,0.0360097736120224,0.011766763404011726,-0.023722436279058456,-0.0014066756702959538,-0.05210782587528229,0.01539561152458191,0.014488543383777142,-0.04952997341752052,-0.052769824862480164,0.06303656846284866,-0.05234987661242485,0.019339391961693764,0.0660979375243187,0.02343943528831005,0.08556590229272842,-0.04974599555134773,0.045543670654296875,-0.09404309093952179,0.05690111592411995,-0.04509955644607544,0.058921195566654205,0.01941080577671528,0.04433109983801842,0.033933527767658234,-0.023763373494148254,0.05181277543306351,0.017946606501936913,-0.07507934421300888,0.08680596947669983,-0.026883330196142197,-0.04958832263946533,0.1215498149394989,-0.030020246282219887,0.05984797328710556,-0.04087325185537338,0.07375800609588623,0.08114740252494812,-0.04474763944745064,-0.049561697989702225,0.021685132756829262,-0.03281794488430023,0.056664466857910156,0.08084171265363693,-0.02859734185039997,-0.037205349653959274,0.021945960819721222,0.009501958265900612,-0.01877491921186447,-0.0004886705428361893,0.0622074119746685,-0.029595015570521355,-0.03832736611366272,0.12966454029083252,-0.006086030043661594,0.029561661183834076,0.03878629207611084,-0.12656792998313904,0.0305932629853487,-0.045884449034929276,0.013442791067063808,0.08144261687994003,-0.044624943286180496,-0.0013438332825899124,-0.11077629774808884,-0.1484922170639038
LR4,-0.002069652546197176,-0.029071778059005737,-0.10061018168926239,-0.01825793646275997,-0.06879851967096329,-0.024198787286877632,-0.004308813717216253,-0.0235810074955225,-0.0379921980202198,-0.03843206167221069,-0.006412259768694639,0.09969056397676468,-0.08783265203237534,-0.12163213640451431,0.008655727840960026,-0.060793109238147736,-0.1032755896449089,0.059231702238321304,-0.04197395592927933,-0.004736279137432575,-0.0622132271528244,0.1207084208726883,-0.016302213072776794,-0.09023719280958176,0.07566393166780472,-0.033144161105155945,0.09112667292356491,0.013793808408081532,0.02433694712817669,0.050370752811431885,0.04121938720345497,0.013539162464439869,0.004536507185548544,0.020127158612012863,-0.10562783479690552,0.025246404111385345,0.08866680413484573,-0.13221175968647003,-0.028244618326425552,-0.0636267140507698,0.040433477610349655,-0.05930624157190323,-0.0027331854216754436,-0.07741185277700424,0.1060047373175621,-0.010962391272187233,-0.08153341710567474,0.00843564048409462,-0.02152167819440365,-0.0296190045773983,-0.04039186239242554,0.09420032054185867,-0.06085241213440895,0.007365851197391748,-0.10890834778547287,0.07493171095848083,-0.02835797891020775,-0.004899808671325445,-0.021776173263788223,-0.162491112947464,-0.027387576177716255,-0.02059689536690712,-0.05210361257195473,0.036009781062603,0.011766759678721428,-0.023722440004348755,-0.0014067015144973993,-0.0521078035235405,0.015395641326904297,0.01448853686451912,-0.04952998086810112,-0.05276981741189957,0.06303658336400986,-0.052349887788295746,0.019339410588145256,0.0660979151725769,0.023439420387148857,0.08556587994098663,-0.04974596947431564,0.04554365202784538,-0.09404315799474716,0.05690113082528114,-0.04509955272078514,0.058921199291944504,0.019410811364650726,0.04433107748627663,0.033933546394109726,-0.023763379082083702,0.05181277543306351,0.0179466363042593,-0.07507934421300888,0.08680596947669983,-0.026883361861109734,-0.049588337540626526,0.12154985964298248,-0.03002025932073593,0.05984799563884735,-0.04087327793240547,0.07375799119472504,0.08114739507436752,-0.04474763199687004,-0.04956170171499252,0.021685147657990456,-0.03281799331307411,0.05666447430849075,0.08084170520305634,-0.028597312048077583,-0.037205349653959274,0.021945977583527565,0.009501945227384567,-0.018774958327412605,-0.0004886617534793913,0.0622074119746685,-0.029595058411359787,-0.038327377289533615,0.12966454029083252,-0.006086047738790512,0.029561636969447136,0.03878628462553024,-0.12656791508197784,0.03059324063360691,-0.045884501188993454,0.013442808762192726,0.08144261687994003,-0.04462490603327751,-0.0013438493479043245,-0.11077631264925003,-0.14849220216274261
LR5,0.0005733779398724437,0.04529068246483803,-0.0775560662150383,0.0007661629351787269,-0.009680512361228466,0.01042125467211008,-0.03350841626524925,-0.10913803428411484,0.069127656519413,-0.027770858258008957,0.06028927490115166,0.05597075819969177,0.013309959322214127,-0.061912648379802704,-0.03135231137275696,0.019231131300330162,-0.03048500046133995,0.09061659127473831,-0.02699456736445427,0.03270435705780983,0.05158678814768791,-0.08760111778974533,-0.014840638265013695,-0.05521887168288231,-0.03898167982697487,0.11038649082183838,0.01331565622240305,0.006076602730900049,0.0027396338991820812,-0.06655077636241913,-0.035121381282806396,0.04790734499692917,0.06336749345064163,0.10450617223978043,-0.041897326707839966,0.01016312837600708,0.05302319675683975,0.06706897914409637,-0.03317730873823166,-0.05721030756831169,0.005413468927145004,-0.03912951797246933,-0.04910242184996605,-0.05806758999824524,0.12660177052021027,-0.037882331758737564,-0.10095729678869247,0.010445374064147472,0.04541027918457985,-0.060806307941675186,-0.030023761093616486,0.04380813241004944,0.005691940896213055,0.008524099364876747,-0.02316853776574135,0.1035560816526413,0.14659278094768524,0.04361727088689804,-0.06615857779979706,0.031500231474637985,-0.012464816682040691,0.04005001112818718,-0.04064593091607094,0.027139319106936455,-0.021139411255717278,-0.06255005300045013,0.003634426975622773,-0.026304638013243675,-0.0479816310107708,-0.07015878707170486,0.008607692085206509,0.03757144510746002,0.11140915751457214,0.02455352246761322,0.05966288223862648,-0.03334879130125046,0.03421070799231529,-0.010033657774329185,0.053863104432821274,-0.021101003512740135,-0.08931288123130798,0.004193541593849659,0.017995137721300125,-0.05099474638700485,0.073731429874897,0.02884584665298462,0.02207927219569683,-0.019392795860767365,-0.020307298749685287,-0.0033237417228519917,-0.0016704461304470897,0.039071738719940186,0.03880918398499489,-0.03487235680222511,-0.014860897324979305,0.012604259885847569,0.0510953851044178,-0.0391966886818409,0.01459997333586216,-0.03419975936412811,-0.09964912384748459,-0.03873131424188614,0.15776167809963226,0.11407135426998138,0.04915823042392731,-0.011367302387952805,-0.040016595274209976,0.11098036170005798,0.017475035041570663,0.00026544168940745294,0.05720594897866249,0.01180342584848404,0.00969944428652525,0.014824618585407734,0.004291932564228773,0.09115071594715118,-0.01436841581016779,-0.05220479518175125,0.08398278057575226,0.024105487391352654,-0.005104732699692249,-0.07820504158735275,0.011965543031692505,0.03056766837835312,0.07537901401519775,-0.04531914368271828,-0.042034342885017395,-0.02866644784808159
